<?xml version="1.0"?>
<opencv_storage>
<cascade>
  <stageType>BOOST</stageType>
  <featureType>HAAR</featureType>
  <height>31</height>
  <width>62</width>
  <stageParams>
    <boostType>GAB</boostType>
    <minHitRate>9.9500000476837158e-01</minHitRate>
    <maxFalseAlarm>5.0000000000000000e-01</maxFalseAlarm>
    <weightTrimRate>9.4999998807907104e-01</weightTrimRate>
    <maxDepth>1</maxDepth>
    <maxWeakCount>100</maxWeakCount></stageParams>
  <featureParams>
    <maxCatCount>0</maxCatCount>
    <featSize>1</featSize>
    <mode>BASIC</mode></featureParams>
  <stageNum>8</stageNum>
  <stages>
    <!-- stage 0 -->
    <_>
      <maxWeakCount>12</maxWeakCount>
      <stageThreshold>-1.2169014215469360e+00</stageThreshold>
      <weakClassifiers>
        <_>
          <internalNodes>
            0 -1 26 -6.1078131198883057e-02</internalNodes>
          <leafValues>
            -7.8200000524520874e-01 4.6217265725135803e-01</leafValues></_>
        <_>
          <internalNodes>
            0 -1 12 1.1098474264144897e-02</internalNodes>
          <leafValues>
            -2.3832499980926514e-01 8.1697112321853638e-01</leafValues></_>
        <_>
          <internalNodes>
            0 -1 13 1.5560561791062355e-02</internalNodes>
          <leafValues>
            -2.1460939943790436e-01 8.6623299121856689e-01</leafValues></_>
        <_>
          <internalNodes>
            0 -1 80 8.8158799335360527e-03</internalNodes>
          <leafValues>
            -1.6596546769142151e-01 7.5842046737670898e-01</leafValues></_>
        <_>
          <internalNodes>
            0 -1 70 8.9140459895133972e-03</internalNodes>
          <leafValues>
            -2.0279780030250549e-01 8.1569647789001465e-01</leafValues></_>
        <_>
          <internalNodes>
            0 -1 71 -5.3301248699426651e-03</internalNodes>
          <leafValues>
            7.6413828134536743e-01 -2.2928789258003235e-01</leafValues></_>
        <_>
          <internalNodes>
            0 -1 84 -4.6960421605035663e-04</internalNodes>
          <leafValues>
            7.6557075977325439e-01 -1.4675211906433105e-01</leafValues></_>
        <_>
          <internalNodes>
            0 -1 46 1.2406954541802406e-02</internalNodes>
          <leafValues>
            -1.6665725409984589e-01 8.1736356019973755e-01</leafValues></_>
        <_>
          <internalNodes>
            0 -1 45 -1.1250900104641914e-02</internalNodes>
          <leafValues>
            7.3918050527572632e-01 -1.7078709602355957e-01</leafValues></_>
        <_>
          <internalNodes>
            0 -1 15 -1.2249629944562912e-02</internalNodes>
          <leafValues>
            7.3892194032669067e-01 -1.6396309435367584e-01</leafValues></_>
        <_>
          <internalNodes>
            0 -1 25 9.7515359520912170e-03</internalNodes>
          <leafValues>
            -2.1595828235149384e-01 7.5065129995346069e-01</leafValues></_>
        <_>
          <internalNodes>
            0 -1 86 -1.4522096607834101e-03</internalNodes>
          <leafValues>
            -7.9910910129547119e-01 2.3602935671806335e-01</leafValues></_></weakClassifiers></_>
    <!-- stage 1 -->
    <_>
      <maxWeakCount>10</maxWeakCount>
      <stageThreshold>-7.8692990541458130e-01</stageThreshold>
      <weakClassifiers>
        <_>
          <internalNodes>
            0 -1 64 8.6572375148534775e-03</internalNodes>
          <leafValues>
            2.9077450744807720e-03 8.2997763156890869e-01</leafValues></_>
        <_>
          <internalNodes>
            0 -1 63 -1.2096095830202103e-02</internalNodes>
          <leafValues>
            8.1240111589431763e-01 -1.4614994823932648e-01</leafValues></_>
        <_>
          <internalNodes>
            0 -1 9 -3.0545360641553998e-04</internalNodes>
          <leafValues>
            6.7059397697448730e-01 -1.7999351024627686e-01</leafValues></_>
        <_>
          <internalNodes>
            0 -1 9 2.7140701422467828e-04</internalNodes>
          <leafValues>
            -2.2567446529865265e-01 6.5163183212280273e-01</leafValues></_>
        <_>
          <internalNodes>
            0 -1 75 9.8249893635511398e-03</internalNodes>
          <leafValues>
            -2.0235115289688110e-01 7.5186842679977417e-01</leafValues></_>
        <_>
          <internalNodes>
            0 -1 74 -9.5415925607085228e-03</internalNodes>
          <leafValues>
            8.2801657915115356e-01 -1.9065469503402710e-01</leafValues></_>
        <_>
          <internalNodes>
            0 -1 2 -1.7423119395971298e-02</internalNodes>
          <leafValues>
            6.8496441841125488e-01 -1.5515692532062531e-01</leafValues></_>
        <_>
          <internalNodes>
            0 -1 42 9.5849093049764633e-03</internalNodes>
          <leafValues>
            -1.5261706709861755e-01 7.5343865156173706e-01</leafValues></_>
        <_>
          <internalNodes>
            0 -1 49 8.0588068813085556e-03</internalNodes>
          <leafValues>
            -1.6935195028781891e-01 7.2913408279418945e-01</leafValues></_>
        <_>
          <internalNodes>
            0 -1 53 9.8834056407213211e-03</internalNodes>
          <leafValues>
            -1.9495783746242523e-01 7.0683056116104126e-01</leafValues></_></weakClassifiers></_>
    <!-- stage 2 -->
    <_>
      <maxWeakCount>12</maxWeakCount>
      <stageThreshold>-1.4832227230072021e+00</stageThreshold>
      <weakClassifiers>
        <_>
          <internalNodes>
            0 -1 83 1.3102117227390409e-03</internalNodes>
          <leafValues>
            3.8785386085510254e-01 -4.8335015773773193e-01</leafValues></_>
        <_>
          <internalNodes>
            0 -1 0 3.3299246570095420e-04</internalNodes>
          <leafValues>
            -1.9791512191295624e-01 6.6776025295257568e-01</leafValues></_>
        <_>
          <internalNodes>
            0 -1 85 4.5961569994688034e-03</internalNodes>
          <leafValues>
            -1.7447173595428467e-01 7.0927447080612183e-01</leafValues></_>
        <_>
          <internalNodes>
            0 -1 62 1.3689607381820679e-02</internalNodes>
          <leafValues>
            -1.8253903090953827e-01 7.0684206485748291e-01</leafValues></_>
        <_>
          <internalNodes>
            0 -1 69 4.4264588505029678e-03</internalNodes>
          <leafValues>
            -2.0469376444816589e-01 7.3450499773025513e-01</leafValues></_>
        <_>
          <internalNodes>
            0 -1 60 -1.5249708667397499e-02</internalNodes>
          <leafValues>
            9.0359079837799072e-01 -1.5007932484149933e-01</leafValues></_>
        <_>
          <internalNodes>
            0 -1 59 1.1130788363516331e-02</internalNodes>
          <leafValues>
            -1.3634926080703735e-01 8.0162376165390015e-01</leafValues></_>
        <_>
          <internalNodes>
            0 -1 82 5.7122651487588882e-03</internalNodes>
          <leafValues>
            -1.6739454865455627e-01 6.6161304712295532e-01</leafValues></_>
        <_>
          <internalNodes>
            0 -1 19 -1.6800473676994443e-03</internalNodes>
          <leafValues>
            7.7038216590881348e-01 -1.6955004632472992e-01</leafValues></_>
        <_>
          <internalNodes>
            0 -1 54 -1.0136980563402176e-02</internalNodes>
          <leafValues>
            7.1424436569213867e-01 -1.1296131461858749e-01</leafValues></_>
        <_>
          <internalNodes>
            0 -1 48 -1.0903181508183479e-02</internalNodes>
          <leafValues>
            6.1857330799102783e-01 -1.8840567767620087e-01</leafValues></_>
        <_>
          <internalNodes>
            0 -1 40 -8.7714549154043198e-03</internalNodes>
          <leafValues>
            6.1607468128204346e-01 -1.9925889372825623e-01</leafValues></_></weakClassifiers></_>
    <!-- stage 3 -->
    <_>
      <maxWeakCount>16</maxWeakCount>
      <stageThreshold>-1.3424593210220337e+00</stageThreshold>
      <weakClassifiers>
        <_>
          <internalNodes>
            0 -1 29 -4.6839706599712372e-02</internalNodes>
          <leafValues>
            -7.1428573131561279e-01 3.4201809763908386e-01</leafValues></_>
        <_>
          <internalNodes>
            0 -1 18 3.2525338232517242e-02</internalNodes>
          <leafValues>
            -2.3272337019443512e-01 5.7080137729644775e-01</leafValues></_>
        <_>
          <internalNodes>
            0 -1 32 4.9926005303859711e-03</internalNodes>
          <leafValues>
            -1.2866914272308350e-01 7.4082094430923462e-01</leafValues></_>
        <_>
          <internalNodes>
            0 -1 38 7.5838933698832989e-03</internalNodes>
          <leafValues>
            -1.9746308028697968e-01 7.6707762479782104e-01</leafValues></_>
        <_>
          <internalNodes>
            0 -1 11 -2.0969174802303314e-02</internalNodes>
          <leafValues>
            6.4902913570404053e-01 -1.9221720099449158e-01</leafValues></_>
        <_>
          <internalNodes>
            0 -1 22 7.8817270696163177e-03</internalNodes>
          <leafValues>
            -1.4986413717269897e-01 6.8120723962783813e-01</leafValues></_>
        <_>
          <internalNodes>
            0 -1 66 1.1719829402863979e-02</internalNodes>
          <leafValues>
            -1.4784523844718933e-01 7.5996923446655273e-01</leafValues></_>
        <_>
          <internalNodes>
            0 -1 68 -4.9264645203948021e-03</internalNodes>
          <leafValues>
            6.3839948177337646e-01 -2.3095512390136719e-01</leafValues></_>
        <_>
          <internalNodes>
            0 -1 47 -1.0216915048658848e-02</internalNodes>
          <leafValues>
            -6.4659869670867920e-01 2.0370770990848541e-01</leafValues></_>
        <_>
          <internalNodes>
            0 -1 72 -5.9286132454872131e-03</internalNodes>
          <leafValues>
            7.4144291877746582e-01 -1.9200916588306427e-01</leafValues></_>
        <_>
          <internalNodes>
            0 -1 73 -7.5890305452048779e-03</internalNodes>
          <leafValues>
            7.5457859039306641e-01 -1.0858390480279922e-01</leafValues></_>
        <_>
          <internalNodes>
            0 -1 76 6.9512203335762024e-03</internalNodes>
          <leafValues>
            -1.0685056447982788e-01 8.6456727981567383e-01</leafValues></_>
        <_>
          <internalNodes>
            0 -1 31 -6.0342121869325638e-03</internalNodes>
          <leafValues>
            6.9441926479339600e-01 -1.4684227108955383e-01</leafValues></_>
        <_>
          <internalNodes>
            0 -1 7 2.7849036268889904e-04</internalNodes>
          <leafValues>
            -1.8147633969783783e-01 5.5036002397537231e-01</leafValues></_>
        <_>
          <internalNodes>
            0 -1 6 -2.1721846424043179e-03</internalNodes>
          <leafValues>
            -5.4428821802139282e-01 2.1861213445663452e-01</leafValues></_>
        <_>
          <internalNodes>
            0 -1 57 5.3412332199513912e-03</internalNodes>
          <leafValues>
            -1.6965889930725098e-01 7.3220491409301758e-01</leafValues></_></weakClassifiers></_>
    <!-- stage 4 -->
    <_>
      <maxWeakCount>14</maxWeakCount>
      <stageThreshold>-7.6525807380676270e-01</stageThreshold>
      <weakClassifiers>
        <_>
          <internalNodes>
            0 -1 87 4.0669195004738867e-04</internalNodes>
          <leafValues>
            3.4154930710792542e-01 -7.3793101310729980e-01</leafValues></_>
        <_>
          <internalNodes>
            0 -1 77 9.6301577286794782e-04</internalNodes>
          <leafValues>
            -1.8263073265552521e-01 8.1790453195571899e-01</leafValues></_>
        <_>
          <internalNodes>
            0 -1 56 -3.9869737811386585e-03</internalNodes>
          <leafValues>
            8.2209938764572144e-01 -1.3325442373752594e-01</leafValues></_>
        <_>
          <internalNodes>
            0 -1 61 -7.0410217158496380e-03</internalNodes>
          <leafValues>
            8.0971014499664307e-01 -1.7171134054660797e-01</leafValues></_>
        <_>
          <internalNodes>
            0 -1 36 2.9622882604598999e-02</internalNodes>
          <leafValues>
            2.0105186104774475e-01 -7.1746778488159180e-01</leafValues></_>
        <_>
          <internalNodes>
            0 -1 51 -7.2196228429675102e-03</internalNodes>
          <leafValues>
            8.1414943933486938e-01 -1.6884201765060425e-01</leafValues></_>
        <_>
          <internalNodes>
            0 -1 52 5.3289956413209438e-03</internalNodes>
          <leafValues>
            -1.7895321547985077e-01 7.7224749326705933e-01</leafValues></_>
        <_>
          <internalNodes>
            0 -1 8 -3.8191903149709105e-04</internalNodes>
          <leafValues>
            6.3539832830429077e-01 -1.7172540724277496e-01</leafValues></_>
        <_>
          <internalNodes>
            0 -1 4 -4.7881770879030228e-03</internalNodes>
          <leafValues>
            7.5051254034042358e-01 -1.1988198012113571e-01</leafValues></_>
        <_>
          <internalNodes>
            0 -1 28 1.3921793550252914e-02</internalNodes>
          <leafValues>
            -1.8410189449787140e-01 7.2039407491683960e-01</leafValues></_>
        <_>
          <internalNodes>
            0 -1 3 6.3380384817719460e-03</internalNodes>
          <leafValues>
            -1.9513675570487976e-01 6.5185278654098511e-01</leafValues></_>
        <_>
          <internalNodes>
            0 -1 30 -3.6443397402763367e-03</internalNodes>
          <leafValues>
            8.4459590911865234e-01 -1.0279367119073868e-01</leafValues></_>
        <_>
          <internalNodes>
            0 -1 81 1.7862362437881529e-04</internalNodes>
          <leafValues>
            -2.2906339168548584e-01 5.2683204412460327e-01</leafValues></_>
        <_>
          <internalNodes>
            0 -1 41 1.1096138507127762e-02</internalNodes>
          <leafValues>
            -1.7753472924232483e-01 7.4329268932342529e-01</leafValues></_></weakClassifiers></_>
    <!-- stage 5 -->
    <_>
      <maxWeakCount>13</maxWeakCount>
      <stageThreshold>-8.3939719200134277e-01</stageThreshold>
      <weakClassifiers>
        <_>
          <internalNodes>
            0 -1 5 -1.8304376862943172e-03</internalNodes>
          <leafValues>
            -6.5197217464447021e-01 3.9558893442153931e-01</leafValues></_>
        <_>
          <internalNodes>
            0 -1 43 1.9749205559492111e-02</internalNodes>
          <leafValues>
            -2.3845848441123962e-01 7.8930747509002686e-01</leafValues></_>
        <_>
          <internalNodes>
            0 -1 14 4.8697628080844879e-03</internalNodes>
          <leafValues>
            -1.6129849851131439e-01 8.9306813478469849e-01</leafValues></_>
        <_>
          <internalNodes>
            0 -1 78 1.6983661334961653e-03</internalNodes>
          <leafValues>
            -1.6626442968845367e-01 8.4484809637069702e-01</leafValues></_>
        <_>
          <internalNodes>
            0 -1 79 5.2386564202606678e-03</internalNodes>
          <leafValues>
            -1.6851179301738739e-01 8.8987511396408081e-01</leafValues></_>
        <_>
          <internalNodes>
            0 -1 35 -1.1276129633188248e-02</internalNodes>
          <leafValues>
            7.6358324289321899e-01 -1.8275932967662811e-01</leafValues></_>
        <_>
          <internalNodes>
            0 -1 34 3.1196603085845709e-03</internalNodes>
          <leafValues>
            -1.5865616500377655e-01 7.9356336593627930e-01</leafValues></_>
        <_>
          <internalNodes>
            0 -1 27 -2.3045327514410019e-02</internalNodes>
          <leafValues>
            9.0834677219390869e-01 -1.4778871834278107e-01</leafValues></_>
        <_>
          <internalNodes>
            0 -1 50 -1.8355406820774078e-02</internalNodes>
          <leafValues>
            8.0908060073852539e-01 -1.7001077532768250e-01</leafValues></_>
        <_>
          <internalNodes>
            0 -1 44 5.5728887673467398e-04</internalNodes>
          <leafValues>
            3.2265278697013855e-01 -6.1919426918029785e-01</leafValues></_>
        <_>
          <internalNodes>
            0 -1 21 -2.0516154472716153e-04</internalNodes>
          <leafValues>
            8.3171659708023071e-01 -2.4148659408092499e-01</leafValues></_>
        <_>
          <internalNodes>
            0 -1 1 -1.8136101425625384e-04</internalNodes>
          <leafValues>
            5.8802485466003418e-01 -2.6994478702545166e-01</leafValues></_>
        <_>
          <internalNodes>
            0 -1 58 3.5758706508204341e-04</internalNodes>
          <leafValues>
            3.6733579635620117e-01 -4.5658558607101440e-01</leafValues></_></weakClassifiers></_>
    <!-- stage 6 -->
    <_>
      <maxWeakCount>9</maxWeakCount>
      <stageThreshold>-7.1623182296752930e-01</stageThreshold>
      <weakClassifiers>
        <_>
          <internalNodes>
            0 -1 33 1.7407585983164608e-04</internalNodes>
          <leafValues>
            5.8354115486145020e-01 -3.9039665460586548e-01</leafValues></_>
        <_>
          <internalNodes>
            0 -1 65 -1.0896674939431250e-04</internalNodes>
          <leafValues>
            1. -2.3748552799224854e-01</leafValues></_>
        <_>
          <internalNodes>
            0 -1 10 -1.9854649901390076e-02</internalNodes>
          <leafValues>
            -5.0244224071502686e-01 5.2308869361877441e-01</leafValues></_>
        <_>
          <internalNodes>
            0 -1 23 8.1282414612360299e-05</internalNodes>
          <leafValues>
            5.6956321001052856e-01 -5.3420341014862061e-01</leafValues></_>
        <_>
          <internalNodes>
            0 -1 39 1.4950716868042946e-03</internalNodes>
          <leafValues>
            3.5690075159072876e-01 -8.1199067831039429e-01</leafValues></_>
        <_>
          <internalNodes>
            0 -1 17 1.8192373681813478e-03</internalNodes>
          <leafValues>
            -3.7893056869506836e-01 9.3855774402618408e-01</leafValues></_>
        <_>
          <internalNodes>
            0 -1 20 -5.6265434250235558e-04</internalNodes>
          <leafValues>
            8.0145621299743652e-01 -2.9022440314292908e-01</leafValues></_>
        <_>
          <internalNodes>
            0 -1 16 1.4302928466349840e-03</internalNodes>
          <leafValues>
            8.0165451765060425e-01 -3.3420017361640930e-01</leafValues></_>
        <_>
          <internalNodes>
            0 -1 67 -6.0450361343100667e-04</internalNodes>
          <leafValues>
            -4.0471836924552917e-01 6.1492812633514404e-01</leafValues></_></weakClassifiers></_>
    <!-- stage 7 -->
    <_>
      <maxWeakCount>3</maxWeakCount>
      <stageThreshold>-4.3745300173759460e-01</stageThreshold>
      <weakClassifiers>
        <_>
          <internalNodes>
            0 -1 55 2.5786312762647867e-03</internalNodes>
          <leafValues>
            1. -7.5054705142974854e-01</leafValues></_>
        <_>
          <internalNodes>
            0 -1 37 -1.8994029611349106e-02</internalNodes>
          <leafValues>
            -6.7951709032058716e-01 1.</leafValues></_>
        <_>
          <internalNodes>
            0 -1 24 9.0853852452710271e-04</internalNodes>
          <leafValues>
            1. -6.8690598011016846e-01</leafValues></_></weakClassifiers></_></stages>
  <features>
    <_>
      <rects>
        <_>
          0 0 2 2 -1.</_>
        <_>
          0 0 1 1 2.</_>
        <_>
          1 1 1 1 2.</_></rects>
      <tilted>0</tilted></_>
    <_>
      <rects>
        <_>
          0 0 2 11 -1.</_>
        <_>
          1 0 1 11 2.</_></rects>
      <tilted>0</tilted></_>
    <_>
      <rects>
        <_>
          0 0 61 3 -1.</_>
        <_>
          0 1 61 1 3.</_></rects>
      <tilted>0</tilted></_>
    <_>
      <rects>
        <_>
          0 2 3 25 -1.</_>
        <_>
          1 2 1 25 3.</_></rects>
      <tilted>0</tilted></_>
    <_>
      <rects>
        <_>
          0 3 3 14 -1.</_>
        <_>
          1 3 1 14 3.</_></rects>
      <tilted>0</tilted></_>
    <_>
      <rects>
        <_>
          0 8 3 9 -1.</_>
        <_>
          0 11 3 3 3.</_></rects>
      <tilted>0</tilted></_>
    <_>
      <rects>
        <_>
          0 10 3 15 -1.</_>
        <_>
          0 15 3 5 3.</_></rects>
      <tilted>0</tilted></_>
    <_>
      <rects>
        <_>
          0 24 2 6 -1.</_>
        <_>
          0 24 1 3 2.</_>
        <_>
          1 27 1 3 2.</_></rects>
      <tilted>0</tilted></_>
    <_>
      <rects>
        <_>
          0 27 2 4 -1.</_>
        <_>
          0 27 1 2 2.</_>
        <_>
          1 29 1 2 2.</_></rects>
      <tilted>0</tilted></_>
    <_>
      <rects>
        <_>
          0 29 2 2 -1.</_>
        <_>
          0 29 1 1 2.</_>
        <_>
          1 30 1 1 2.</_></rects>
      <tilted>0</tilted></_>
    <_>
      <rects>
        <_>
          1 20 28 9 -1.</_>
        <_>
          15 20 14 9 2.</_></rects>
      <tilted>0</tilted></_>
    <_>
      <rects>
        <_>
          2 28 60 3 -1.</_>
        <_>
          2 29 60 1 3.</_></rects>
      <tilted>0</tilted></_>
    <_>
      <rects>
        <_>
          2 29 56 2 -1.</_>
        <_>
          2 30 56 1 2.</_></rects>
      <tilted>0</tilted></_>
    <_>
      <rects>
        <_>
          3 28 48 3 -1.</_>
        <_>
          3 29 48 1 3.</_></rects>
      <tilted>0</tilted></_>
    <_>
      <rects>
        <_>
          6 16 9 5 -1.</_>
        <_>
          9 16 3 5 3.</_></rects>
      <tilted>0</tilted></_>
    <_>
      <rects>
        <_>
          7 0 52 3 -1.</_>
        <_>
          7 1 52 1 3.</_></rects>
      <tilted>0</tilted></_>
    <_>
      <rects>
        <_>
          8 14 36 8 -1.</_>
        <_>
          8 14 18 4 2.</_>
        <_>
          26 18 18 4 2.</_></rects>
      <tilted>0</tilted></_>
    <_>
      <rects>
        <_>
          9 11 6 20 -1.</_>
        <_>
          11 11 2 20 3.</_></rects>
      <tilted>0</tilted></_>
    <_>
      <rects>
        <_>
          9 20 41 9 -1.</_>
        <_>
          9 23 41 3 3.</_></rects>
      <tilted>0</tilted></_>
    <_>
      <rects>
        <_>
          10 27 6 1 -1.</_>
        <_>
          12 27 2 1 3.</_></rects>
      <tilted>0</tilted></_>
    <_>
      <rects>
        <_>
          11 24 4 4 -1.</_>
        <_>
          11 26 4 2 2.</_></rects>
      <tilted>0</tilted></_>
    <_>
      <rects>
        <_>
          13 1 1 2 -1.</_>
        <_>
          13 2 1 1 2.</_></rects>
      <tilted>0</tilted></_>
    <_>
      <rects>
        <_>
          14 28 21 3 -1.</_>
        <_>
          14 29 21 1 3.</_></rects>
      <tilted>0</tilted></_>
    <_>
      <rects>
        <_>
          15 1 4 1 -1.</_>
        <_>
          17 1 2 1 2.</_></rects>
      <tilted>0</tilted></_>
    <_>
      <rects>
        <_>
          16 1 15 1 -1.</_>
        <_>
          21 1 5 1 3.</_></rects>
      <tilted>0</tilted></_>
    <_>
      <rects>
        <_>
          18 0 36 3 -1.</_>
        <_>
          18 1 36 1 3.</_></rects>
      <tilted>0</tilted></_>
    <_>
      <rects>
        <_>
          18 1 13 30 -1.</_>
        <_>
          18 16 13 15 2.</_></rects>
      <tilted>0</tilted></_>
    <_>
      <rects>
        <_>
          18 4 40 9 -1.</_>
        <_>
          18 7 40 3 3.</_></rects>
      <tilted>0</tilted></_>
    <_>
      <rects>
        <_>
          20 5 19 6 -1.</_>
        <_>
          20 7 19 2 3.</_></rects>
      <tilted>0</tilted></_>
    <_>
      <rects>
        <_>
          22 8 40 18 -1.</_>
        <_>
          22 8 20 9 2.</_>
        <_>
          42 17 20 9 2.</_></rects>
      <tilted>0</tilted></_>
    <_>
      <rects>
        <_>
          22 11 6 3 -1.</_>
        <_>
          24 11 2 3 3.</_></rects>
      <tilted>0</tilted></_>
    <_>
      <rects>
        <_>
          23 15 9 4 -1.</_>
        <_>
          26 15 3 4 3.</_></rects>
      <tilted>0</tilted></_>
    <_>
      <rects>
        <_>
          24 11 6 5 -1.</_>
        <_>
          26 11 2 5 3.</_></rects>
      <tilted>0</tilted></_>
    <_>
      <rects>
        <_>
          24 14 2 2 -1.</_>
        <_>
          24 15 2 1 2.</_></rects>
      <tilted>0</tilted></_>
    <_>
      <rects>
        <_>
          24 15 6 4 -1.</_>
        <_>
          26 15 2 4 3.</_></rects>
      <tilted>0</tilted></_>
    <_>
      <rects>
        <_>
          25 2 29 6 -1.</_>
        <_>
          25 4 29 2 3.</_></rects>
      <tilted>0</tilted></_>
    <_>
      <rects>
        <_>
          25 6 19 12 -1.</_>
        <_>
          25 12 19 6 2.</_></rects>
      <tilted>0</tilted></_>
    <_>
      <rects>
        <_>
          25 8 22 16 -1.</_>
        <_>
          25 8 11 8 2.</_>
        <_>
          36 16 11 8 2.</_></rects>
      <tilted>0</tilted></_>
    <_>
      <rects>
        <_>
          26 12 6 6 -1.</_>
        <_>
          28 12 2 6 3.</_></rects>
      <tilted>0</tilted></_>
    <_>
      <rects>
        <_>
          27 28 6 3 -1.</_>
        <_>
          30 28 3 3 2.</_></rects>
      <tilted>0</tilted></_>
    <_>
      <rects>
        <_>
          30 8 6 17 -1.</_>
        <_>
          32 8 2 17 3.</_></rects>
      <tilted>0</tilted></_>
    <_>
      <rects>
        <_>
          31 9 6 14 -1.</_>
        <_>
          33 9 2 14 3.</_></rects>
      <tilted>0</tilted></_>
    <_>
      <rects>
        <_>
          31 12 6 11 -1.</_>
        <_>
          33 12 2 11 3.</_></rects>
      <tilted>0</tilted></_>
    <_>
      <rects>
        <_>
          31 20 21 9 -1.</_>
        <_>
          31 23 21 3 3.</_></rects>
      <tilted>0</tilted></_>
    <_>
      <rects>
        <_>
          32 1 9 1 -1.</_>
        <_>
          35 1 3 1 3.</_></rects>
      <tilted>0</tilted></_>
    <_>
      <rects>
        <_>
          32 6 6 25 -1.</_>
        <_>
          34 6 2 25 3.</_></rects>
      <tilted>0</tilted></_>
    <_>
      <rects>
        <_>
          32 8 6 14 -1.</_>
        <_>
          34 8 2 14 3.</_></rects>
      <tilted>0</tilted></_>
    <_>
      <rects>
        <_>
          32 10 30 2 -1.</_>
        <_>
          47 10 15 2 2.</_></rects>
      <tilted>0</tilted></_>
    <_>
      <rects>
        <_>
          33 7 6 18 -1.</_>
        <_>
          35 7 2 18 3.</_></rects>
      <tilted>0</tilted></_>
    <_>
      <rects>
        <_>
          34 11 6 9 -1.</_>
        <_>
          36 11 2 9 3.</_></rects>
      <tilted>0</tilted></_>
    <_>
      <rects>
        <_>
          35 2 23 9 -1.</_>
        <_>
          35 5 23 3 3.</_></rects>
      <tilted>0</tilted></_>
    <_>
      <rects>
        <_>
          35 15 6 5 -1.</_>
        <_>
          37 15 2 5 3.</_></rects>
      <tilted>0</tilted></_>
    <_>
      <rects>
        <_>
          35 15 4 8 -1.</_>
        <_>
          37 15 2 8 2.</_></rects>
      <tilted>0</tilted></_>
    <_>
      <rects>
        <_>
          36 10 6 13 -1.</_>
        <_>
          38 10 2 13 3.</_></rects>
      <tilted>0</tilted></_>
    <_>
      <rects>
        <_>
          36 11 6 12 -1.</_>
        <_>
          38 11 2 12 3.</_></rects>
      <tilted>0</tilted></_>
    <_>
      <rects>
        <_>
          36 16 18 2 -1.</_>
        <_>
          36 16 9 1 2.</_>
        <_>
          45 17 9 1 2.</_></rects>
      <tilted>0</tilted></_>
    <_>
      <rects>
        <_>
          36 17 6 3 -1.</_>
        <_>
          38 17 2 3 3.</_></rects>
      <tilted>0</tilted></_>
    <_>
      <rects>
        <_>
          36 17 6 5 -1.</_>
        <_>
          38 17 2 5 3.</_></rects>
      <tilted>0</tilted></_>
    <_>
      <rects>
        <_>
          36 20 2 2 -1.</_>
        <_>
          36 21 2 1 2.</_></rects>
      <tilted>0</tilted></_>
    <_>
      <rects>
        <_>
          37 9 6 12 -1.</_>
        <_>
          39 9 2 12 3.</_></rects>
      <tilted>0</tilted></_>
    <_>
      <rects>
        <_>
          38 8 6 13 -1.</_>
        <_>
          40 8 2 13 3.</_></rects>
      <tilted>0</tilted></_>
    <_>
      <rects>
        <_>
          38 15 6 5 -1.</_>
        <_>
          40 15 2 5 3.</_></rects>
      <tilted>0</tilted></_>
    <_>
      <rects>
        <_>
          39 8 6 16 -1.</_>
        <_>
          41 8 2 16 3.</_></rects>
      <tilted>0</tilted></_>
    <_>
      <rects>
        <_>
          39 10 6 16 -1.</_>
        <_>
          41 10 2 16 3.</_></rects>
      <tilted>0</tilted></_>
    <_>
      <rects>
        <_>
          39 11 6 10 -1.</_>
        <_>
          41 11 2 10 3.</_></rects>
      <tilted>0</tilted></_>
    <_>
      <rects>
        <_>
          40 4 2 6 -1.</_>
        <_>
          40 4 1 3 2.</_>
        <_>
          41 7 1 3 2.</_></rects>
      <tilted>0</tilted></_>
    <_>
      <rects>
        <_>
          42 10 6 12 -1.</_>
        <_>
          44 10 2 12 3.</_></rects>
      <tilted>0</tilted></_>
    <_>
      <rects>
        <_>
          42 11 8 3 -1.</_>
        <_>
          42 12 8 1 3.</_></rects>
      <tilted>0</tilted></_>
    <_>
      <rects>
        <_>
          42 14 6 6 -1.</_>
        <_>
          44 14 2 6 3.</_></rects>
      <tilted>0</tilted></_>
    <_>
      <rects>
        <_>
          42 16 6 4 -1.</_>
        <_>
          44 16 2 4 3.</_></rects>
      <tilted>0</tilted></_>
    <_>
      <rects>
        <_>
          43 11 6 10 -1.</_>
        <_>
          45 11 2 10 3.</_></rects>
      <tilted>0</tilted></_>
    <_>
      <rects>
        <_>
          43 12 6 6 -1.</_>
        <_>
          45 12 2 6 3.</_></rects>
      <tilted>0</tilted></_>
    <_>
      <rects>
        <_>
          45 12 6 4 -1.</_>
        <_>
          47 12 2 4 3.</_></rects>
      <tilted>0</tilted></_>
    <_>
      <rects>
        <_>
          47 8 4 16 -1.</_>
        <_>
          49 8 2 16 2.</_></rects>
      <tilted>0</tilted></_>
    <_>
      <rects>
        <_>
          47 9 6 12 -1.</_>
        <_>
          49 9 2 12 3.</_></rects>
      <tilted>0</tilted></_>
    <_>
      <rects>
        <_>
          47 10 6 12 -1.</_>
        <_>
          49 10 2 12 3.</_></rects>
      <tilted>0</tilted></_>
    <_>
      <rects>
        <_>
          48 17 6 5 -1.</_>
        <_>
          50 17 2 5 3.</_></rects>
      <tilted>0</tilted></_>
    <_>
      <rects>
        <_>
          48 26 4 2 -1.</_>
        <_>
          48 26 2 1 2.</_>
        <_>
          50 27 2 1 2.</_></rects>
      <tilted>0</tilted></_>
    <_>
      <rects>
        <_>
          51 12 6 3 -1.</_>
        <_>
          53 12 2 3 3.</_></rects>
      <tilted>0</tilted></_>
    <_>
      <rects>
        <_>
          52 1 6 16 -1.</_>
        <_>
          52 1 3 8 2.</_>
        <_>
          55 9 3 8 2.</_></rects>
      <tilted>0</tilted></_>
    <_>
      <rects>
        <_>
          56 8 6 16 -1.</_>
        <_>
          58 8 2 16 3.</_></rects>
      <tilted>0</tilted></_>
    <_>
      <rects>
        <_>
          57 0 4 2 -1.</_>
        <_>
          57 0 2 1 2.</_>
        <_>
          59 1 2 1 2.</_></rects>
      <tilted>0</tilted></_>
    <_>
      <rects>
        <_>
          59 1 3 27 -1.</_>
        <_>
          60 1 1 27 3.</_></rects>
      <tilted>0</tilted></_>
    <_>
      <rects>
        <_>
          59 12 3 9 -1.</_>
        <_>
          59 15 3 3 3.</_></rects>
      <tilted>0</tilted></_>
    <_>
      <rects>
        <_>
          59 30 3 1 -1.</_>
        <_>
          60 30 1 1 3.</_></rects>
      <tilted>0</tilted></_>
    <_>
      <rects>
        <_>
          60 0 2 31 -1.</_>
        <_>
          61 0 1 31 2.</_></rects>
      <tilted>0</tilted></_>
    <_>
      <rects>
        <_>
          60 12 2 9 -1.</_>
        <_>
          60 15 2 3 3.</_></rects>
      <tilted>0</tilted></_>
    <_>
      <rects>
        <_>
          60 15 1 3 -1.</_>
        <_>
          60 16 1 1 3.</_></rects>
      <tilted>0</tilted></_></features></cascade>
</opencv_storage>
